{"sizes": [10, 5, 2], "weights": [[[0.9561885765174575, -0.3845624372638269, -0.03637854996719256, -0.36374209050138673, -0.08995902183308378, -0.042941282263167055, 0.3925558717832072, -0.2655778705416872, 0.43388748407758015, -0.01017507875947819], [-0.07684077148800379, -0.2980985718158456, -0.3046891371940427, 0.3472274359062646, -0.16870478099858005, -0.00027281986313255587, -0.3458346881112004, 0.32217638441863544, -0.08112105759603991, 0.4900754561580823], [0.3430681578228021, 0.29282718611529895, 0.5409416038968714, -0.10691560564943496, 0.22455188647157498, -0.3243015488923319, 0.31391619376321755, -0.21875010626147628, 0.2000620514124641, 0.03329063246197347], [0.0128872170236173, 0.16809650603285664, -0.35215866445397803, -0.1433269954963381, -0.5379502754572635, 0.12302504250454015, -0.47069680288281174, 0.37344412673827687, 0.12627641896473588, -0.04372129214885515], [-0.1881850846292745, 0.40061771428080095, -0.11391955792173396, 0.2664841955151798, 0.5389026682490377, -0.3400026548180156, 0.3595220740810478, 0.3692349271291028, -0.3449559392055967, 0.039505275910495526]], [[-0.3379481508086923, -0.349639810106327, 0.062058841274339444, 0.2993703096805071, 0.5275891583393272], [0.3387525498178666, -0.14556366131058285, 0.6346396967019229, 0.2650035482897937, -0.34683858066982987]]], "biases": [[[0.7620442679019883], [0.4557699032846754], [0.017007755874200347], [-1.02999814944541], [-0.2421863180228569]], [[-1.7188978921434814], [1.6664760036954578]]], "cost": "CrossEntropyCost"}